Input |64| (LeakyReLU) |4| (TanH) Output
W -0.09944672 -0.038215015 0.043881092 -0.37988874 0.07309769 0.08214169 -0.28809777 0.3796051 0.31650823 -0.11438123 0.0018778463 -0.1424789 -0.23153129 -0.013640781 0.042873804 0.2880649 0.047716632 -0.1337994 0.08066151 0.07557836 -0.010938761 0.057605617 0.20431241 -0.011483124 -0.130526 -0.03631451 0.09597606 0.13630301 0.25969625 -0.3523045 -0.057042744 0.08335192 0.22008544 0.14496933 -0.12801984 -0.19929692 0.23198378 0.39127326 0.00096476334 -0.04451081 -0.47804487 0.07139794 0.01685515 0.051315036 -0.2658035 -0.1296865 0.22581664 -0.22429328 -0.013341183 0.16579913 -0.06617178 -0.15575683 -0.0758838 0.18162028 -0.23402278 -0.109655574 0.24002488 -0.15723991 -0.05763276 -0.071088985 0.21367624 -0.05322099 -0.00890138 -0.28943777 -0.30227965 -0.050221883 -0.06670631 -0.12650277 0.020273322 -0.06899781 -0.016992526 0.21865986 -0.35609135 -0.06706728 0.16171142 0.06283201 -0.23029406 0.37398016 0.12592232 -0.13759162 -0.03000504 0.3083383 0.10585578 -0.28237477 -0.3665696 -0.039731584 0.09568922 -0.120978735 -0.00013030438 0.07155402 -0.20893444 -0.21966174 -0.22960061 0.055721793 -0.0029516804 0.15998055 -0.106338106 0.11842154 0.062350143 0.06974408 -0.20207703 -0.15256304 -0.09756893 -0.13882166 0.012279771 -0.1819691 -0.024203185 0.011146088 0.07845084 -0.23286887 -0.054184675 0.11164525 0.14871614 -0.37344098 -0.13746147 -0.09743065 -0.10856572 -0.16798484 0.013157874 0.022343863 0.02778306 -0.017862525 -0.0496727 0.026275981 -0.09738423 -0.10679898 0.06767517 -0.0605969 0.012458038 -0.24277876 0.22879909 0.07417625 0.108815156 0.18243524 0.22427209 -0.2785331 0.09369552 -0.17840062 -0.053912204 -0.12280627 0.19977988 0.09039523 0.0038253595 -0.03777252 -0.20112592 -0.26285312 -0.25732043 0.2660482 -0.2482574 0.29874858 -0.036102157 0.04187905 0.29163226 -0.3402536 -0.12619226 0.015794152 -0.2149073 -0.11993553 -0.0026553276 -0.17169352 0.2819429 -0.13291039 -0.24269384 -0.08107905 0.048657257 -0.02632317 -0.33400387 -0.18760464 -0.0346371 -0.19150929 -0.22645503 0.048128236 0.034719843 0.04635769 0.10973159 0.13079928 0.06762949 -0.23835665 0.12554488 0.17296259 -0.035159975 0.023943575 -0.02314637 -0.03137944 -0.07304325 0.046739932 -0.20627262 -0.0121369315 0.105435446 0.2125379 0.029639138 -0.30205044 -0.088552326 -0.08429909 -0.19664522 -0.22106555 -0.091346644 0.17748183 0.21913798 -0.09610539 0.02975339 0.17410542 -0.056072976 0.045799784 -0.026069408 -0.0070343767 0.07246921 -0.017246233 -0.06697764 -0.078997016 0.10579429 -0.025827935 0.30614546 0.063300356 0.16984372 0.060467787 -0.17774877 -0.36026552 0.107158445 0.061027452 0.030993529 -0.13001132 -0.1243676 -0.07573758 -0.10741758 -0.11838981 0.010984459 0.2572186 -0.042112205 0.027502434 -0.00041114414 0.026768181 -0.054705773 0.19469233 -0.16441394 0.23886228 0.051738597 0.01809434 -0.034099456 -0.08742447 0.34188855 0.00097309076 -0.23238423 -0.17294486 0.18054433 0.32153252 -0.04338194 -0.59881544 0.0015442184 -0.31306455 -0.20829874 -0.22452126 0.0047480143 0.09166205 -0.13660766 -0.27341843 -0.045395847 -0.107392184 0.053229537 -0.029021963 0.19885162 0.05153706 0.20929399 0.029674271 0.0011188533 0.06129741 -0.06398712 -0.009565353 -0.051598694 -0.16047615 -0.15688126 0.17085658 7.038677E-05 0.21061796 0.07046277 -0.03206159 -0.2176865 0.004346247 -0.13404264 -0.10631479 -0.03313156 0.028014401 0.108309925 0.13487361 0.016838832 -0.08696947 0.14852707 -0.021461839 0.08618982 -0.13128172 0.07051128 -0.007008792 -0.21440323 0.18135124 -0.19519521 -0.27512625 0.15851167 0.029432785 0.05027958 -0.029587537 -0.09022615 -0.28145298 -0.31963262 -0.1114999 -0.102411434 -0.027124235 0.17606902 0.09281404 0.13150154 -0.12532185 0.07466756 -0.08659476 0.10617172 0.029688869 -0.23988819 -0.53118855 0.08392503 0.02161183 0.13177416 -0.15310006 -0.33630058 -0.16095538 -0.15978172 -0.023065735 0.01970942 -0.10955135 0.033989225 -0.1491703 0.15225446 0.040429365 0.22447008 -0.28465077 -0.021225948 0.055519037 -0.39281866 -0.088088796 0.16103636 0.104322076 -0.06915852 -0.25880748 -0.05734665 0.1716473 0.16787595 0.05311554 -0.064000495 -0.14241783 -0.3255737 -0.17200173 -0.30834442 -0.2562462 0.08132995 0.14545703 -0.057383962 -0.31506228 -0.047788914 -0.24962525 0.5350261 0.056180883 -0.012141272 -0.17375284 -0.1679568 -0.07795173 -0.065169044 0.2440066 0.14642829 -0.32606983 -0.19349885 0.39068842 -0.07109136 0.11244263 0.06848539 -0.19869536 -0.09044017 -0.09702406 0.087955385 0.14335246 0.37127367 0.21099077 0.083522916 -0.15929613 0.0185267 -0.039632473 -0.13815366 0.25414202 0.21003538 0.08799707 -0.12824437 -0.2102776 0.3860623 0.08638914 -0.05690786 -0.038063727 -0.085354336 0.0928693 -0.119040795 0.09536363 -0.063041955 0.13974461 0.028186182 -0.27616432 -0.17947426 -0.08861727 0.02650159 0.37992558 0.02599583 0.22549155 0.47848445 0.100520164 -0.23381974 -0.19730054 -0.12065898 0.037141234 -0.22025913 -0.12467575 -0.17920391 0.07106925 -0.014256273 -0.2754301 -0.21793114 0.14290486 0.06446373 -0.12345661 -0.013118256 -0.1650193 -0.012132657 -0.1323766 0.04250723 -0.12185046 -0.12800966 -0.19635077 0.050657112 0.11980152 -0.06150259 -0.21880212 -0.17879844 0.08587419 0.08980856 0.05390144 0.145295 0.17142367 -0.0098051 0.51625484 -0.16170003 0.08072748 0.10281704 0.06288004 0.1071293 0.28873923 -0.11359934 0.057008084 -0.124858454 0.008078157 0.12249718 0.12929781 0.06937834 0.27244684 0.0024103196 0.13403288 0.22287397 0.14368962 0.21589258 0.030452939 -0.052430905 -0.19153604 0.20347029 0.06450455 -0.20044386 0.20558533 0.08325257 0.2095627 -0.23378216 0.31928575 -0.0027596022 -0.045370933 -0.19775362 0.054480262 -0.2267372 -0.21831386 -0.28063518 -0.1390253 0.05222338 0.012611543 0.047265645 -0.036819458 0.06561947 0.072009064 0.22616264 -0.11377001 0.057814214 -0.23240598 0.22747101 0.2624583 -0.08186153 0.2911681 0.047694966 -0.046433054 0.1343914 -0.12675063 -0.12304795 0.30034685 0.04928015 -0.22526544 0.084268905 -0.089054875 0.16995975 0.00013904346 0.15484333 0.20843498 0.0752181 0.09674305 0.09725483 -0.06743924 -0.15494403 0.056610104 0.4279933 0.1327713 -0.24164195 0.119613394 0.026882732 0.066078424 0.026420308 0.14722799 -0.04123341 0.08185389 0.012171014 0.16282347 -0.24323583 0.21071768 -0.16021632 0.14686291 0.013708884 0.14050058 -0.10428916 -0.051924914 -0.15812796 0.18618745 -0.029880172 -0.21034953 0.19605805 -0.07759246 0.52752346 -0.09072027 -0.1457191 0.11358938 0.0034984187 0.33313707 -0.5932884 -0.14478312 -0.35653123 -0.031110452 -0.050427657 -0.063872285 -0.20179063 0.36350536 -0.116619684 -0.31141517 -0.06181072 -0.09075455 -0.29190394 0.12800984 0.09968772 0.031433288 -0.14749026 0.13839523 -0.021199862 -0.06283521 0.20393574 -0.43522877 -0.10172269 0.11003622 -0.4091658 -0.028171748 -0.022257058 0.041731324 -0.25583285 0.063470826 0.21323362 0.15069513 0.07625076 0.08018038 0.053047 -0.00080539274 0.023696389 -0.0070143417 -0.036143247 -0.19011588 -0.11064559 -0.13664784 -0.177017 0.14481297 -0.27305466 -0.08031871 0.23274362 -0.042736083 0.013333003 0.027242253 -0.06396591 -0.00858155 0.30645624 -0.17812206 -0.031739395 -0.2650593 -0.3262121 -0.08523005 0.11991739 0.13365231 0.15947726 -0.035521306 0.0209851 0.07181423 -0.2801484 -0.028134722 0.14174764 0.17026697 -0.13963935 0.13897379 0.028252892 0.16860507 -0.3298097 -0.20862453 0.05637272 0.3263965 0.07907638 0.04388205 -0.2661119 0.29659787 0.07287389 0.103805706 0.11531868 -0.071576335 0.28938806 -0.019865753 -0.19132169 -0.07390263 0.08178376 -0.23965009 -0.18229973 0.06851993 -0.30738416 0.018141385 0.16941825 -0.060119156 0.04440219 0.06845462 -0.04807687 -0.08023692 0.15322156 -0.15074803 -0.14428814 0.1301995 -0.13804314 0.036195755 -0.058733646 -0.03238832 0.34068426 0.09833904 -0.13317 -0.11189694 -0.10648533 0.060703896 -0.057062637 0.02417054 -0.2781129 -0.139947 0.13148609 -0.16119283 -0.09351461 -0.028250221 -0.043327335 0.12224582 -0.13720842 0.067623205 0.07100245 0.3133492 -0.061399776 0.29173085 -0.21365038 0.098986104 0.19598648 -0.07751689 -0.066617996 -0.05930733 -0.19506851 -0.08623026 0.018140307 -0.17655161 0.26426277 -0.18135649 0.08565078 -0.0049156332 -0.12121323 0.12446809 -0.12637527 0.11067235 0.092926644 -0.38560578 0.028515238 0.04619402 0.028284809 -0.36189917 0.39587128 0.0058119395 -0.27052838 -0.23781602 -0.13006203 0.13031399 -0.09250677 0.2703523 0.049614877 0.10157253 -0.26754755 0.23638183 -0.05301269 -0.052357696 -0.030552141 -0.020974245 0.04433346 -0.020102507 -0.11710708 0.03888376 0.07412313 0.061147258 0.079668775 0.31262806 -0.01804359 0.06574624 -0.12196661 -0.31020892 0.081698164 -0.10430498 -0.12055787 0.048962392 -0.23414023 -0.29947108 0.07687262 -0.1189407 0.19288209 -0.15830772 0.0491483 0.09923554 -0.20808466 -0.15907206 0.11469749 -0.035220068 -0.1739725 0.24957445 0.021047488 0.20455399 -0.0019581642 -0.08735472 -0.08043625 -0.059573554 -0.14471355 -0.006824919 0.16286784 0.0644062 0.095486514 0.07360018 0.04377842 -0.017398441 -0.07591382 -0.10791703 0.13111904 0.06438604 0.007452539 -0.0980501 0.22260721 0.072473496 B -0.00011431338 -0.020157687 -0.03291078 -0.013450255 -0.015539323 -0.002845499 0.018518852 -0.020651234 -0.023081642 -0.012601601 -0.011895436 -0.013331132 0.012776019 0.011098731 -0.015396755 -0.016720878 0.0016438479 0.0023449548 0.020484569 -0.0040747337 0.018663885 -0.0028356686 0.02107548 -0.008036993 -0.0044214902 -0.025082218 0.022574244 -0.021638548 0.009877564 0.0053529018 -0.040244065 0.061066415 -0.023635402 -0.01710324 -0.0048089214 -0.0152832335 -0.019717494 -0.0028946004 0.073872395 0.0034959347 -0.00017164485 -0.012694208 -0.022319753 0.051612634 0.012212239 0.03517358 0.026715131 0.0323949 0.004479111 0.0026958564 -0.025171453 -0.015944919 0.005924534 0.022956116 -0.018814296 0.001817779 0.013333068 0.0014973746 -0.010148019 -0.020267278 0.020145802 -0.025794355 0.013473412 -0.013458675
W 0.2599716 0.047716584 -0.03223836 0.13267995 0.012328386 0.041981585 0.20792872 0.06869031 0.087077744 -0.010057529 -0.060808532 -0.0610321 -0.17595689 -0.07168122 0.24368697 -0.2264482 0.031240316 -0.0077760536 -0.07305684 -0.23866189 0.15320966 -0.13420099 -0.1821354 0.004332914 -0.17131528 0.25062203 -0.16913392 -0.03230287 -0.13997106 -0.16330713 0.1263579 0.24896577 0.15846586 0.09474135 0.100195214 0.22367321 0.07106876 -0.10440568 0.39316264 -0.15070152 -0.12583378 0.22959118 0.049628586 0.099356934 0.055015035 -0.0074938084 -0.28944322 0.09569278 -0.21472637 0.06989255 0.12770113 -0.289507 -0.25895616 -0.13513418 -0.31628764 -0.14466214 -0.057006497 0.0043769176 0.10365129 0.03791199 0.10613173 0.19906057 0.16154785 0.0140459165 -0.1683196 0.03509057 0.24832663 -0.108117394 0.023744952 0.10658263 0.073591195 0.10151904 -0.34520417 0.1265666 -0.10474046 -0.07490507 -0.18686093 -0.18809204 0.14329205 -0.33632734 -0.11025165 0.13877329 0.006195178 0.11314984 0.022136658 0.1434007 0.11117659 0.035499435 0.10440834 0.019995637 0.12601693 -0.1399828 -0.07341412 -0.13156432 0.18008503 0.10813821 0.12273069 -0.11680301 0.2606265 -0.119439535 0.16734213 0.31178343 0.48844704 -0.018765358 0.17954277 -0.026256416 -0.016776968 0.160114 -0.07769159 0.19393405 0.17932749 -0.07179822 -0.17706057 -0.34312817 0.053325582 0.03398961 -0.05395684 -0.058933914 -0.19345924 -0.0333157 0.11670592 -0.18431272 0.20632198 0.17749792 0.10007618 0.031550657 0.407299 0.026206302 0.13741273 -0.15376355 -0.04054464 -0.19395745 -0.07158019 -0.2739033 -0.36737564 -0.14930971 0.09370493 -0.1109122 0.0141717745 0.03572512 0.1188447 0.15898697 -0.4160955 0.020284489 -0.09179815 0.16630678 0.12438487 -0.031932607 0.037737813 -0.002313873 0.29430005 -0.13394359 -0.0035845526 -0.16286299 -0.0023089668 -0.2316033 0.32987627 -0.30053622 0.1042975 -0.20496039 -0.028847074 0.10374631 -0.009535824 0.07963791 -0.08134213 0.0010996183 -0.15140235 0.16294345 -0.28376427 -0.23214032 0.08613941 -0.015046481 0.07770864 0.082215786 0.1503223 -0.0022464255 -0.3435882 -0.21460809 -0.051271256 0.11013287 0.2694308 0.067365505 0.06397013 -0.21689351 0.09134216 -0.1875882 0.24475282 -0.063782915 -0.072049245 0.13507521 0.2085789 -0.14245315 -0.07432099 0.15352967 0.017380433 0.034637053 0.13125728 -0.06926871 -0.21735008 0.010804487 -0.0015410844 0.11523336 -0.20857272 0.2803158 -0.0057146633 0.068873934 -0.34408736 -0.1352748 -0.049207024 0.039201267 -0.12382708 0.09072858 -0.029146535 0.12026867 -0.16968684 -0.21114603 -0.10451009 -0.15411796 -0.14692943 0.1448166 0.058462966 -0.050027106 -0.042661656 -0.106860995 0.1917044 0.51918757 -0.13370031 0.08207761 0.1520461 0.08770238 -0.20820764 0.078486055 0.030349264 -0.053715684 0.12455881 -0.15885414 -0.14596982 -0.24588796 -0.03197518 -0.18569714 -0.13042612 0.3989583 -0.03682334 -0.11321459 0.1083582 0.061889466 0.06948038 0.015013775 -0.22095636 0.029177729 0.23900814 0.06767473 0.1639993 0.20207188 -0.10147328 0.20132016 B -0.0125781335 0.006473399 0.006659379 -0.017575556
